digraph Tree {
node [shape=box, style="filled, rounded", color="black", fontname=helvetica] ;
edge [fontname=helvetica] ;
0 [label=<TotalWorkingYears &le; 1.5<br/>entropy = 0.659<br/>samples = 897<br/>value = [744, 153]<br/>class = No Attrition>, fillcolor="#ea9b62"] ;
1 [label=<entropy = 0.995<br/>samples = 61<br/>value = [28, 33]<br/>class = Attrition>, fillcolor="#e1f0fb"] ;
0 -> 1 [labeldistance=2.5, labelangle=45, headlabel="True"] ;
2 [label=<OverTime &le; 0.5<br/>entropy = 0.593<br/>samples = 836<br/>value = [716, 120]<br/>class = No Attrition>, fillcolor="#e9965a"] ;
0 -> 2 [labeldistance=2.5, labelangle=-45, headlabel="False"] ;
3 [label=<JobSatisfaction &le; 1.5<br/>entropy = 0.453<br/>samples = 599<br/>value = [542, 57]<br/>class = No Attrition>, fillcolor="#e88e4e"] ;
2 -> 3 ;
4 [label=<entropy = 0.684<br/>samples = 110<br/>value = [90, 20]<br/>class = No Attrition>, fillcolor="#eb9d65"] ;
3 -> 4 ;
5 [label=<EnvironmentSatisfaction &le; 1.5<br/>entropy = 0.387<br/>samples = 489<br/>value = [452, 37]<br/>class = No Attrition>, fillcolor="#e78b49"] ;
3 -> 5 ;
6 [label=<entropy = 0.602<br/>samples = 102<br/>value = [87, 15]<br/>class = No Attrition>, fillcolor="#e9975b"] ;
5 -> 6 ;
7 [label=<MonthlyIncome &le; 2500.5<br/>entropy = 0.315<br/>samples = 387<br/>value = [365, 22]<br/>class = No Attrition>, fillcolor="#e78945"] ;
5 -> 7 ;
8 [label=<entropy = 0.0<br/>samples = 61<br/>value = [61, 0]<br/>class = No Attrition>, fillcolor="#e58139"] ;
7 -> 8 ;
9 [label=<EnvironmentSatisfaction &le; 2.5<br/>entropy = 0.356<br/>samples = 326<br/>value = [304, 22]<br/>class = No Attrition>, fillcolor="#e78a47"] ;
7 -> 9 ;
10 [label=<entropy = 0.098<br/>samples = 79<br/>value = [78, 1]<br/>class = No Attrition>, fillcolor="#e5833c"] ;
9 -> 10 ;
11 [label=<EducationField &le; 2.5<br/>entropy = 0.42<br/>samples = 247<br/>value = [226, 21]<br/>class = No Attrition>, fillcolor="#e78d4b"] ;
9 -> 11 ;
12 [label=<MonthlyIncome &le; 6101.0<br/>entropy = 0.278<br/>samples = 125<br/>value = [119, 6]<br/>class = No Attrition>, fillcolor="#e68743"] ;
11 -> 12 ;
13 [label=<entropy = 0.198<br/>samples = 65<br/>value = [63, 2]<br/>class = No Attrition>, fillcolor="#e6853f"] ;
12 -> 13 ;
14 [label=<entropy = 0.353<br/>samples = 60<br/>value = [56, 4]<br/>class = No Attrition>, fillcolor="#e78a47"] ;
12 -> 14 ;
15 [label=<StockOptionLevel &le; 0.5<br/>entropy = 0.538<br/>samples = 122<br/>value = [107, 15]<br/>class = No Attrition>, fillcolor="#e99355"] ;
11 -> 15 ;
16 [label=<entropy = 0.687<br/>samples = 60<br/>value = [49, 11]<br/>class = No Attrition>, fillcolor="#eb9d65"] ;
15 -> 16 ;
17 [label=<entropy = 0.345<br/>samples = 62<br/>value = [58, 4]<br/>class = No Attrition>, fillcolor="#e78a47"] ;
15 -> 17 ;
18 [label=<StockOptionLevel &le; 0.5<br/>entropy = 0.835<br/>samples = 237<br/>value = [174, 63]<br/>class = No Attrition>, fillcolor="#eeaf81"] ;
2 -> 18 ;
19 [label=<entropy = 0.977<br/>samples = 102<br/>value = [60, 42]<br/>class = No Attrition>, fillcolor="#f7d9c4"] ;
18 -> 19 ;
20 [label=<MonthlyIncome &le; 5787.5<br/>entropy = 0.624<br/>samples = 135<br/>value = [114, 21]<br/>class = No Attrition>, fillcolor="#ea985d"] ;
18 -> 20 ;
21 [label=<entropy = 0.46<br/>samples = 72<br/>value = [65, 7]<br/>class = No Attrition>, fillcolor="#e88f4e"] ;
20 -> 21 ;
22 [label=<entropy = 0.764<br/>samples = 63<br/>value = [49, 14]<br/>class = No Attrition>, fillcolor="#eca572"] ;
20 -> 22 ;
}